<?xml version="1.0"?>
<opencv_storage>
<stage4>
  <maxWeakCount>5</maxWeakCount>
  <stageThreshold>-1.8905539512634277e+00</stageThreshold>
  <weakClassifiers>
    <_>
      <internalNodes>
        0 -1 91532 7.7037855982780457e-02</internalNodes>
      <leafValues>
        -9.6074581146240234e-01 6.6666668653488159e-01</leafValues></_>
    <_>
      <internalNodes>
        0 -1 139463 -1.9595122337341309e-01</internalNodes>
      <leafValues>
        4.9078729748725891e-01 -8.1262898445129395e-01</leafValues></_>
    <_>
      <internalNodes>
        0 -1 80132 -3.6755686160176992e-03</internalNodes>
      <leafValues>
        4.6103882789611816e-01 -5.6743556261062622e-01</leafValues></_>
    <_>
      <internalNodes>
        0 -1 22173 3.1715910881757736e-04</internalNodes>
      <leafValues>
        2.5956547260284424e-01 -9.3075203895568848e-01</leafValues></_>
    <_>
      <internalNodes>
        0 -1 160368 1.3384170597419143e-04</internalNodes>
      <leafValues>
        1.9069099426269531e-01 -1.</leafValues></_></weakClassifiers></stage4>
</opencv_storage>
